Language model created by QuickLM on Mon Jun 19 17:45:30 EDT 2017
Copyright (c) 1996-2010 Carnegie Mellon University and Alexander I. Rudnicky

The model is in standard ARPA format, designed by Doug Paul while he was at MITRE.

The code that was used to produce this language model is available in Open Source.
Please visit http://www.speech.cs.cmu.edu/tools/ for more information

The (fixed) discount mass is 0.5. The backoffs are computed using the ratio method.
This model based on a corpus of 4 sentences and 9 words

\data\
ngram 1=9
ngram 2=11
ngram 3=8

\1-grams:
-0.9031 </s> -0.3010
-0.9031 <s> -0.2430
-1.5051 FORWARD -0.2430
-1.5051 LEFT -0.2430
-1.5051 MOVE -0.2872
-1.5051 MOVING -0.2430
-1.5051 RIGHT -0.2430
-1.2041 ROTATE -0.2730
-1.5051 STOP -0.2872

\2-grams:
-0.9031 <s> MOVE 0.0000
-0.6021 <s> ROTATE 0.0000
-0.9031 <s> STOP 0.0000
-0.3010 FORWARD </s> -0.3010
-0.3010 LEFT </s> -0.3010
-0.3010 MOVE FORWARD 0.0000
-0.3010 MOVING </s> -0.3010
-0.3010 RIGHT </s> -0.3010
-0.6021 ROTATE LEFT 0.0000
-0.6021 ROTATE RIGHT 0.0000
-0.3010 STOP MOVING 0.0000

\3-grams:
-0.3010 <s> MOVE FORWARD
-0.6021 <s> ROTATE LEFT
-0.6021 <s> ROTATE RIGHT
-0.3010 <s> STOP MOVING
-0.3010 MOVE FORWARD </s>
-0.3010 ROTATE LEFT </s>
-0.3010 ROTATE RIGHT </s>
-0.3010 STOP MOVING </s>

\end\