Language model created by QuickLM on Mon Jun 19 06:06:29 EDT 2017
Copyright (c) 1996-2010 Carnegie Mellon University and Alexander I. Rudnicky

The model is in standard ARPA format, designed by Doug Paul while he was at MITRE.

The code that was used to produce this language model is available in Open Source.
Please visit http://www.speech.cs.cmu.edu/tools/ for more information

The (fixed) discount mass is 0.5. The backoffs are computed using the ratio method.
This model based on a corpus of 4 sentences and 7 words

\data\
ngram 1=7
ngram 2=9
ngram 3=6

\1-grams:
-0.8451 </s> -0.3010
-0.8451 <s> -0.2341
-1.4472 BACKWARD -0.2341
-1.4472 FORWARD -0.2341
-1.4472 LEFT -0.2341
-1.4472 RIGHT -0.2341
-1.1461 ROTATE -0.2688

\2-grams:
-0.9031 <s> BACKWARD 0.0000
-0.9031 <s> FORWARD 0.0000
-0.6021 <s> ROTATE 0.0000
-0.3010 BACKWARD </s> -0.3010
-0.3010 FORWARD </s> -0.3010
-0.3010 LEFT </s> -0.3010
-0.3010 RIGHT </s> -0.3010
-0.6021 ROTATE LEFT 0.0000
-0.6021 ROTATE RIGHT 0.0000

\3-grams:
-0.3010 <s> BACKWARD </s>
-0.3010 <s> FORWARD </s>
-0.6021 <s> ROTATE LEFT
-0.6021 <s> ROTATE RIGHT
-0.3010 ROTATE LEFT </s>
-0.3010 ROTATE RIGHT </s>

\end\
