Language model created by QuickLM on Fri Jun 16 05:29:12 EDT 2017
Copyright (c) 1996-2010 Carnegie Mellon University and Alexander I. Rudnicky

The model is in standard ARPA format, designed by Doug Paul while he was at MITRE.

The code that was used to produce this language model is available in Open Source.
Please visit http://www.speech.cs.cmu.edu/tools/ for more information

The (fixed) discount mass is 0.5. The backoffs are computed using the ratio method.
This model based on a corpus of 5 sentences and 10 words

\data\
ngram 1=10
ngram 2=13
ngram 3=12

\1-grams:
-0.9638 </s> -0.3010
-0.9638 <s> -0.2511
-1.6628 BROWSER -0.2511
-1.3617 COMPUTER -0.2511
-1.6628 HELLO -0.2817
-1.3617 MUSIC -0.2511
-1.3617 OFF -0.2615
-1.6628 ON -0.2817
-1.6628 OPEN -0.2915
-1.1856 TURN -0.2717

\2-grams:
-1.0000 <s> HELLO 0.0000
-1.0000 <s> OPEN 0.0000
-0.5229 <s> TURN 0.0000
-0.3010 BROWSER </s> -0.3010
-0.3010 COMPUTER </s> -0.3010
-0.3010 HELLO COMPUTER 0.0000
-0.3010 MUSIC </s> -0.3010
-0.6021 OFF COMPUTER 0.0000
-0.6021 OFF MUSIC 0.0000
-0.3010 ON MUSIC 0.0000
-0.3010 OPEN BROWSER 0.0000
-0.4771 TURN OFF 0.0000
-0.7782 TURN ON 0.0000

\3-grams:
-0.3010 <s> HELLO COMPUTER
-0.3010 <s> OPEN BROWSER
-0.4771 <s> TURN OFF
-0.7782 <s> TURN ON
-0.3010 HELLO COMPUTER </s>
-0.3010 OFF COMPUTER </s>
-0.3010 OFF MUSIC </s>
-0.3010 ON MUSIC </s>
-0.3010 OPEN BROWSER </s>
-0.6021 TURN OFF COMPUTER
-0.6021 TURN OFF MUSIC
-0.3010 TURN ON MUSIC

\end\
